digraph Tree {
node [shape=box, style="filled", color="black"] ;
0 [label="AGE <= 21.0\nmse = 262.502\nsamples = 263\nvalue = 37.041", fillcolor="#f4cbae"] ;
1 [label="CEMENT <= 354.0\nmse = 144.422\nsamples = 85\nvalue = 25.924", fillcolor="#f9e0ce"] ;
0 -> 1 [labeldistance=2.5, labelangle=45, headlabel="True"] ;
2 [label="SUPERPLASTICIZER <= 8.7\nmse = 61.641\nsamples = 57\nvalue = 19.355", fillcolor="#fbece1"] ;
1 -> 2 ;
3 [label="AGE <= 5.0\nmse = 34.279\nsamples = 44\nvalue = 16.939", fillcolor="#fcf1e9"] ;
2 -> 3 ;
4 [label="COARSE_AGGREGATE <= 976.8\nmse = 14.754\nsamples = 13\nvalue = 12.264", fillcolor="#fef9f6"] ;
3 -> 4 ;
5 [label="mse = 7.279\nsamples = 6\nvalue = 9.243", fillcolor="#ffffff"] ;
4 -> 5 ;
6 [label="mse = 10.829\nsamples = 7\nvalue = 13.99", fillcolor="#fdf6f1"] ;
4 -> 6 ;
7 [label="SUPERPLASTICIZER <= 3.6\nmse = 26.734\nsamples = 31\nvalue = 19.448", fillcolor="#fbece1"] ;
3 -> 7 ;
8 [label="CEMENT <= 224.4\nmse = 24.269\nsamples = 23\nvalue = 18.182", fillcolor="#fceee5"] ;
7 -> 8 ;
9 [label="mse = 5.358\nsamples = 8\nvalue = 14.019", fillcolor="#fdf6f1"] ;
8 -> 9 ;
10 [label="COARSE_AGGREGATE <= 969.0\nmse = 20.343\nsamples = 15\nvalue = 20.362", fillcolor="#fbeadf"] ;
8 -> 10 ;
11 [label="mse = 15.869\nsamples = 6\nvalue = 23.466", fillcolor="#fae5d5"] ;
10 -> 11 ;
12 [label="mse = 7.693\nsamples = 9\nvalue = 17.541", fillcolor="#fcf0e7"] ;
10 -> 12 ;
13 [label="mse = 9.552\nsamples = 8\nvalue = 23.948", fillcolor="#f9e4d4"] ;
7 -> 13 ;
14 [label="WATER <= 155.65\nmse = 55.916\nsamples = 13\nvalue = 28.867", fillcolor="#f7dbc6"] ;
2 -> 14 ;
15 [label="mse = 47.38\nsamples = 5\nvalue = 35.373", fillcolor="#f5ceb3"] ;
14 -> 15 ;
16 [label="mse = 20.397\nsamples = 8\nvalue = 24.963", fillcolor="#f9e2d1"] ;
14 -> 16 ;
17 [label="CEMENT <= 457.5\nmse = 89.086\nsamples = 28\nvalue = 36.967", fillcolor="#f4cbae"] ;
1 -> 17 ;
18 [label="COARSE_AGGREGATE <= 956.4\nmse = 60.579\nsamples = 20\nvalue = 33.702", fillcolor="#f6d2b8"] ;
17 -> 18 ;
19 [label="SUPERPLASTICIZER <= 11.15\nmse = 42.342\nsamples = 15\nvalue = 36.59", fillcolor="#f5ccaf"] ;
18 -> 19 ;
20 [label="mse = 27.298\nsamples = 7\nvalue = 33.985", fillcolor="#f6d1b7"] ;
19 -> 20 ;
21 [label="mse = 44.464\nsamples = 8\nvalue = 38.795", fillcolor="#f4c8a9"] ;
19 -> 21 ;
22 [label="mse = 15.188\nsamples = 5\nvalue = 25.038", fillcolor="#f9e2d1"] ;
18 -> 22 ;
23 [label="mse = 78.67\nsamples = 8\nvalue = 43.931", fillcolor="#f2bf9a"] ;
17 -> 23 ;
24 [label="CEMENT <= 311.45\nmse = 236.087\nsamples = 178\nvalue = 41.939", fillcolor="#f2c2a0"] ;
0 -> 24 [labeldistance=2.5, labelangle=-45, headlabel="False"] ;
25 [label="AGE <= 42.0\nmse = 126.339\nsamples = 116\nvalue = 35.371", fillcolor="#f5ceb3"] ;
24 -> 25 ;
26 [label="CEMENT <= 188.1\nmse = 114.817\nsamples = 72\nvalue = 31.663", fillcolor="#f6d5be"] ;
25 -> 26 ;
27 [label="BLAST_FURNACE_SLAG <= 126.3\nmse = 100.042\nsamples = 31\nvalue = 26.143", fillcolor="#f9e0ce"] ;
26 -> 27 ;
28 [label="CEMENT <= 159.9\nmse = 42.234\nsamples = 13\nvalue = 18.805", fillcolor="#fbede3"] ;
27 -> 28 ;
29 [label="mse = 9.682\nsamples = 7\nvalue = 14.254", fillcolor="#fdf6f0"] ;
28 -> 29 ;
30 [label="mse = 30.501\nsamples = 6\nvalue = 23.77", fillcolor="#f9e4d5"] ;
28 -> 30 ;
31 [label="SUPERPLASTICIZER <= 7.2\nmse = 66.979\nsamples = 18\nvalue = 32.17", fillcolor="#f6d4bc"] ;
27 -> 31 ;
32 [label="WATER <= 188.85\nmse = 23.574\nsamples = 10\nvalue = 26.348", fillcolor="#f8dfcd"] ;
31 -> 32 ;
33 [label="mse = 6.428\nsamples = 5\nvalue = 22.822", fillcolor="#fae6d7"] ;
32 -> 33 ;
34 [label="mse = 18.479\nsamples = 5\nvalue = 29.37", fillcolor="#f7dac4"] ;
32 -> 34 ;
35 [label="mse = 49.763\nsamples = 8\nvalue = 37.215", fillcolor="#f4cbad"] ;
31 -> 35 ;
36 [label="COARSE_AGGREGATE <= 1072.5\nmse = 85.906\nsamples = 41\nvalue = 35.802", fillcolor="#f5ceb1"] ;
26 -> 36 ;
37 [label="WATER <= 189.8\nmse = 55.455\nsamples = 35\nvalue = 37.983", fillcolor="#f4caab"] ;
36 -> 37 ;
38 [label="CEMENT <= 273.95\nmse = 32.677\nsamples = 18\nvalue = 41.614", fillcolor="#f3c3a0"] ;
37 -> 38 ;
39 [label="mse = 24.953\nsamples = 9\nvalue = 38.854", fillcolor="#f4c8a9"] ;
38 -> 39 ;
40 [label="mse = 23.16\nsamples = 9\nvalue = 44.718", fillcolor="#f1bd97"] ;
38 -> 40 ;
41 [label="BLAST_FURNACE_SLAG <= 38.0\nmse = 45.473\nsamples = 17\nvalue = 33.236", fillcolor="#f6d2b9"] ;
37 -> 41 ;
42 [label="mse = 9.769\nsamples = 9\nvalue = 27.762", fillcolor="#f8ddc9"] ;
41 -> 42 ;
43 [label="mse = 28.384\nsamples = 8\nvalue = 37.928", fillcolor="#f4caab"] ;
41 -> 43 ;
44 [label="mse = 11.093\nsamples = 6\nvalue = 19.446", fillcolor="#fbece1"] ;
36 -> 44 ;
45 [label="SUPERPLASTICIZER <= 8.8\nmse = 78.992\nsamples = 44\nvalue = 41.958", fillcolor="#f2c29f"] ;
25 -> 45 ;
46 [label="BLAST_FURNACE_SLAG <= 44.8\nmse = 50.421\nsamples = 36\nvalue = 39.857", fillcolor="#f3c6a6"] ;
45 -> 46 ;
47 [label="CEMENT <= 252.7\nmse = 39.373\nsamples = 20\nvalue = 35.68", fillcolor="#f5ceb2"] ;
46 -> 47 ;
48 [label="SUPERPLASTICIZER <= 5.6\nmse = 11.945\nsamples = 15\nvalue = 38.822", fillcolor="#f4c8a9"] ;
47 -> 48 ;
49 [label="mse = 9.033\nsamples = 6\nvalue = 36.849", fillcolor="#f4ccae"] ;
48 -> 49 ;
50 [label="mse = 7.837\nsamples = 9\nvalue = 40.615", fillcolor="#f3c5a3"] ;
48 -> 50 ;
51 [label="mse = 17.457\nsamples = 5\nvalue = 27.434", fillcolor="#f8ddca"] ;
47 -> 51 ;
52 [label="FINE_AGGREGATE <= 747.65\nmse = 25.084\nsamples = 16\nvalue = 44.183", fillcolor="#f2be99"] ;
46 -> 52 ;
53 [label="mse = 27.431\nsamples = 8\nvalue = 46.599", fillcolor="#f1ba92"] ;
52 -> 53 ;
54 [label="mse = 11.066\nsamples = 8\nvalue = 41.767", fillcolor="#f3c3a0"] ;
52 -> 54 ;
55 [label="mse = 73.334\nsamples = 8\nvalue = 53.931", fillcolor="#eeac7c"] ;
45 -> 55 ;
56 [label="WATER <= 176.55\nmse = 210.731\nsamples = 62\nvalue = 54.156", fillcolor="#eeac7c"] ;
24 -> 56 ;
57 [label="WATER <= 163.45\nmse = 115.615\nsamples = 30\nvalue = 63.581", fillcolor="#ea9a60"] ;
56 -> 57 ;
58 [label="WATER <= 154.85\nmse = 114.41\nsamples = 17\nvalue = 59.363", fillcolor="#eca26d"] ;
57 -> 58 ;
59 [label="mse = 44.986\nsamples = 9\nvalue = 68.931", fillcolor="#e89051"] ;
58 -> 59 ;
60 [label="mse = 48.96\nsamples = 8\nvalue = 52.347", fillcolor="#eeaf81"] ;
58 -> 60 ;
61 [label="WATER <= 169.05\nmse = 54.548\nsamples = 13\nvalue = 69.673", fillcolor="#e88f4f"] ;
57 -> 61 ;
62 [label="mse = 7.536\nsamples = 5\nvalue = 77.04", fillcolor="#e58139"] ;
61 -> 62 ;
63 [label="mse = 14.0\nsamples = 8\nvalue = 63.779", fillcolor="#ea9a60"] ;
61 -> 63 ;
64 [label="CEMENT <= 437.5\nmse = 160.831\nsamples = 32\nvalue = 46.75", fillcolor="#f1b991"] ;
56 -> 64 ;
65 [label="BLAST_FURNACE_SLAG <= 145.15\nmse = 110.06\nsamples = 25\nvalue = 42.507", fillcolor="#f2c19e"] ;
64 -> 65 ;
66 [label="COARSE_AGGREGATE <= 1013.45\nmse = 57.974\nsamples = 18\nvalue = 37.299", fillcolor="#f4cbad"] ;
65 -> 66 ;
67 [label="FINE_AGGREGATE <= 768.85\nmse = 74.691\nsamples = 11\nvalue = 40.238", fillcolor="#f3c5a4"] ;
66 -> 67 ;
68 [label="mse = 118.434\nsamples = 5\nvalue = 41.987", fillcolor="#f2c29f"] ;
67 -> 68 ;
69 [label="mse = 18.171\nsamples = 6\nvalue = 38.271", fillcolor="#f4c9aa"] ;
67 -> 69 ;
70 [label="mse = 4.713\nsamples = 7\nvalue = 33.135", fillcolor="#f6d3b9"] ;
66 -> 70 ;
71 [label="mse = 45.419\nsamples = 7\nvalue = 53.294", fillcolor="#eead7e"] ;
65 -> 71 ;
72 [label="mse = 72.147\nsamples = 7\nvalue = 60.788", fillcolor="#eb9f68"] ;
64 -> 72 ;
}