digraph Tree {
node [shape=box, style="filled", color="black"] ;
0 [label="HANDSET_ASAD90 <= 0.5\ngini = 0.331\nsamples = 651\nvalue = [515, 136]\nclass = GOOD", fillcolor="#eca26d"] ;
1 [label="DROPPED_CALLS <= 11.5\ngini = 0.273\nsamples = 608\nvalue = [509, 99]\nclass = GOOD", fillcolor="#ea9a60"] ;
0 -> 1 [labeldistance=2.5, labelangle=45, headlabel="True"] ;
2 [label="HANDSET_CAS30 <= 0.5\ngini = 0.233\nsamples = 586\nvalue = [507, 79]\nclass = GOOD", fillcolor="#e99558"] ;
1 -> 2 ;
3 [label="PEAK_CALLS_TIME <= 94.2\ngini = 0.194\nsamples = 562\nvalue = [501, 61]\nclass = GOOD", fillcolor="#e89051"] ;
2 -> 3 ;
4 [label="gini = 0.499\nsamples = 46\nvalue = [24, 22]\nclass = GOOD", fillcolor="#fdf5ef"] ;
3 -> 4 ;
5 [label="gini = 0.14\nsamples = 516\nvalue = [477, 39]\nclass = GOOD", fillcolor="#e78b49"] ;
3 -> 5 ;
6 [label="AGE <= 32.5\ngini = 0.375\nsamples = 24\nvalue = [6, 18]\nclass = BAD", fillcolor="#7bbeee"] ;
2 -> 6 ;
7 [label="gini = 0.49\nsamples = 14\nvalue = [6, 8]\nclass = BAD", fillcolor="#cee6f8"] ;
6 -> 7 ;
8 [label="gini = 0.0\nsamples = 10\nvalue = [0, 10]\nclass = BAD", fillcolor="#399de5"] ;
6 -> 8 ;
9 [label="WEEKEND_CALLS_NO <= 32.0\ngini = 0.165\nsamples = 22\nvalue = [2, 20]\nclass = BAD", fillcolor="#4da7e8"] ;
1 -> 9 ;
10 [label="gini = 0.0\nsamples = 19\nvalue = [0, 19]\nclass = BAD", fillcolor="#399de5"] ;
9 -> 10 ;
11 [label="PEAK_CALLS_TIME <= 417.9\ngini = 0.444\nsamples = 3\nvalue = [2, 1]\nclass = GOOD", fillcolor="#f2c09c"] ;
9 -> 11 ;
12 [label="gini = 0.0\nsamples = 1\nvalue = [0, 1]\nclass = BAD", fillcolor="#399de5"] ;
11 -> 12 ;
13 [label="gini = 0.0\nsamples = 2\nvalue = [2, 0]\nclass = GOOD", fillcolor="#e58139"] ;
11 -> 13 ;
14 [label="AGE <= 26.5\ngini = 0.24\nsamples = 43\nvalue = [6, 37]\nclass = BAD", fillcolor="#59ade9"] ;
0 -> 14 [labeldistance=2.5, labelangle=-45, headlabel="False"] ;
15 [label="AGE <= 23.5\ngini = 0.365\nsamples = 25\nvalue = [6, 19]\nclass = BAD", fillcolor="#78bced"] ;
14 -> 15 ;
16 [label="SERVICE_DURATION <= 33.5\ngini = 0.188\nsamples = 19\nvalue = [2, 17]\nclass = BAD", fillcolor="#50a9e8"] ;
15 -> 16 ;
17 [label="gini = 0.0\nsamples = 10\nvalue = [0, 10]\nclass = BAD", fillcolor="#399de5"] ;
16 -> 17 ;
18 [label="gini = 0.346\nsamples = 9\nvalue = [2, 7]\nclass = BAD", fillcolor="#72b9ec"] ;
16 -> 18 ;
19 [label="PEAK_CALLS_NO <= 364.0\ngini = 0.444\nsamples = 6\nvalue = [4, 2]\nclass = GOOD", fillcolor="#f2c09c"] ;
15 -> 19 ;
20 [label="gini = 0.0\nsamples = 3\nvalue = [3, 0]\nclass = GOOD", fillcolor="#e58139"] ;
19 -> 20 ;
21 [label="gini = 0.444\nsamples = 3\nvalue = [1, 2]\nclass = BAD", fillcolor="#9ccef2"] ;
19 -> 21 ;
22 [label="gini = 0.0\nsamples = 18\nvalue = [0, 18]\nclass = BAD", fillcolor="#399de5"] ;
14 -> 22 ;
}